{
  "train_loss": [
    1.9513608638445537,
    1.7236766398747763,
    1.4671196403503417,
    1.2983718504110973
  ],
  "val_loss": [
    1.8221478808720906,
    1.5368655335108439,
    1.3726551558176676,
    1.236596399307251
  ],
  "val_acc": [
    30.041666666666668,
    42.708333333333336,
    48.0,
    54.7
  ],
  "best_model_state": {
    "first.weight": [
      [
        [
          [
            -0.17607766389846802,
            0.3934418559074402,
            0.34532660245895386
          ],
          [
            -0.3752923309803009,
            0.055502235889434814,
            -0.0069293915294110775
          ],
          [
            -0.1805039495229721,
            -0.3879033327102661,
            -0.622940719127655
          ]
        ]
      ],
      [
        [
          [
            0.2717055380344391,
            0.25777196884155273,
            0.31078246235847473
          ],
          [
            0.12672971189022064,
            0.13654087483882904,
            -0.14359334111213684
          ],
          [
            -0.17629897594451904,
            0.33660995960235596,
            0.3971897065639496
          ]
        ]
      ],
      [
        [
          [
            0.3338232636451721,
            0.12408646941184998,
            -0.2534782290458679
          ],
          [
            0.23377838730812073,
            0.1220586970448494,
            -0.271213173866272
          ],
          [
            -0.42372769117355347,
            0.13767749071121216,
            -0.0032508771400898695
          ]
        ]
      ],
      [
        [
          [
            -0.04359680414199829,
            -0.3496244251728058,
            -0.1482243835926056
          ],
          [
            0.07226625084877014,
            0.3374190628528595,
            0.12448974698781967
          ],
          [
            -0.2000240832567215,
            0.3772048354148865,
            0.13357022404670715
          ]
        ]
      ],
      [
        [
          [
            0.2690741717815399,
            0.40390580892562866,
            -0.12674804031848907
          ],
          [
            -0.24104748666286469,
            -0.24578963220119476,
            0.3017596900463104
          ],
          [
            0.1448960304260254,
            -0.45727768540382385,
            -0.03970399871468544
          ]
        ]
      ],
      [
        [
          [
            0.10892666131258011,
            0.26324033737182617,
            -0.15177159011363983
          ],
          [
            0.1854899674654007,
            0.034410830587148666,
            -0.25280922651290894
          ],
          [
            -0.22411911189556122,
            -0.20186997950077057,
            0.2826147675514221
          ]
        ]
      ],
      [
        [
          [
            0.3866419494152069,
            -0.09232954680919647,
            -0.15899991989135742
          ],
          [
            0.3362477719783783,
            -0.3238714039325714,
            -0.2416631579399109
          ],
          [
            -0.16167055070400238,
            0.19188809394836426,
            0.2651614844799042
          ]
        ]
      ],
      [
        [
          [
            -0.046177539974451065,
            0.21424807608127594,
            0.3051685392856598
          ],
          [
            0.20012496411800385,
            -0.2482643574476242,
            -0.15829233825206757
          ],
          [
            0.09846873581409454,
            -0.25736314058303833,
            -0.04828937351703644
          ]
        ]
      ],
      [
        [
          [
            0.12706312537193298,
            -0.1481228768825531,
            -0.25842538475990295
          ],
          [
            0.02588304504752159,
            0.3406895399093628,
            0.20773279666900635
          ],
          [
            -0.2113415002822876,
            -0.2466742992401123,
            0.07988189905881882
          ]
        ]
      ],
      [
        [
          [
            -0.05637872964143753,
            -0.07007737457752228,
            0.24662476778030396
          ],
          [
            0.09392735362052917,
            0.27889519929885864,
            0.24966686964035034
          ],
          [
            -0.5203551650047302,
            -0.42238494753837585,
            -0.36439278721809387
          ]
        ]
      ],
      [
        [
          [
            -0.015332684852182865,
            -0.24616676568984985,
            0.02485077455639839
          ],
          [
            -0.02514483965933323,
            -0.10488612949848175,
            0.2581951320171356
          ],
          [
            0.40206411480903625,
            -0.06454798579216003,
            -0.218677818775177
          ]
        ]
      ],
      [
        [
          [
            -0.10776267945766449,
            0.011706682853400707,
            0.17090702056884766
          ],
          [
            -0.37889787554740906,
            0.075829416513443,
            -0.008887584321200848
          ],
          [
            0.1633341908454895,
            0.1508127897977829,
            -0.10930478572845459
          ]
        ]
      ],
      [
        [
          [
            0.25990933179855347,
            0.26377493143081665,
            0.366723895072937
          ],
          [
            0.1830539107322693,
            0.3201657831668854,
            0.2136087864637375
          ],
          [
            0.029926277697086334,
            -0.3201027512550354,
            -0.14121097326278687
          ]
        ]
      ],
      [
        [
          [
            -0.11738909780979156,
            -0.07040441781282425,
            0.029927363619208336
          ],
          [
            -0.1582607924938202,
            0.10400468111038208,
            0.05989453196525574
          ],
          [
            0.10455309599637985,
            0.030032223090529442,
            -0.27855899930000305
          ]
        ]
      ],
      [
        [
          [
            -0.02729133889079094,
            -0.1960790604352951,
            0.36419910192489624
          ],
          [
            0.11208634823560715,
            0.26365721225738525,
            0.26883888244628906
          ],
          [
            0.1289488971233368,
            -0.2142656445503235,
            0.20511844754219055
          ]
        ]
      ],
      [
        [
          [
            0.29405713081359863,
            -0.31652551889419556,
            -0.2638797461986542
          ],
          [
            0.15977132320404053,
            -0.09247616678476334,
            -0.5292952656745911
          ],
          [
            -0.15531980991363525,
            -0.3185177743434906,
            -0.13836513459682465
          ]
        ]
      ]
    ],
    "first.bias": [
      -0.18311047554016113,
      -0.23045645654201508,
      0.004254470579326153,
      -0.0005085149314254522,
      -0.0008555649546906352,
      -0.0292828269302845,
      -0.06317353248596191,
      -0.0029159674886614084,
      -0.11835794895887375,
      0.27275165915489197,
      -0.001192504889331758,
      0.28958529233932495,
      -0.16567885875701904,
      0.15151263773441315,
      0.03731592372059822,
      0.31720760464668274
    ],
    "hiddens.0.weight": [
      [
        [
          [
            -0.32164546847343445,
            -0.6053630709648132,
            -0.4376941919326782
          ],
          [
            -0.26557236909866333,
            -0.294843465089798,
            -0.07600735127925873
          ],
          [
            -0.4631660580635071,
            -0.2205347716808319,
            -0.07714588195085526
          ]
        ],
        [
          [
            0.07569920271635056,
            -0.02391403540968895,
            -0.03436240926384926
          ],
          [
            0.08372396230697632,
            0.016973676159977913,
            -0.007555095944553614
          ],
          [
            0.14617086946964264,
            -0.007975878193974495,
            -0.015348902903497219
          ]
        ],
        [
          [
            0.12089439481496811,
            0.10537370294332504,
            0.23383104801177979
          ],
          [
            0.06230613961815834,
            0.08764117956161499,
            0.15061421692371368
          ],
          [
            0.14668993651866913,
            0.0615805983543396,
            0.014320001937448978
          ]
        ],
        [
          [
            -0.028711749240756035,
            0.026957031339406967,
            -0.027125412598252296
          ],
          [
            0.1199091225862503,
            -0.0005066844751127064,
            0.033779360353946686
          ],
          [
            0.105675607919693,
            0.09159423410892487,
            -0.050079017877578735
          ]
        ],
        [
          [
            -0.0391661673784256,
            -0.025302402675151825,
            0.03983005881309509
          ],
          [
            -0.07921507209539413,
            0.14305154979228973,
            0.1401423066854477
          ],
          [
            -0.08156067132949829,
            0.09317655861377716,
            0.11396659910678864
          ]
        ],
        [
          [
            0.08607935905456543,
            0.17703235149383545,
            0.27095121145248413
          ],
          [
            0.05642576888203621,
            0.06936383992433548,
            0.1675255000591278
          ],
          [
            0.07912348955869675,
            0.09466522186994553,
            0.1985965222120285
          ]
        ],
        [
          [
            0.16555817425251007,
            0.22682251036167145,
            0.20541419088840485
          ],
          [
            0.19098582863807678,
            0.16843624413013458,
            0.1284661591053009
          ],
          [
            0.26717379689216614,
            0.1652538776397705,
            0.11977199465036392
          ]
        ],
        [
          [
            0.05013661086559296,
            0.10469353944063187,
            0.14000743627548218
          ],
          [
            -0.035940684378147125,
            0.08740489929914474,
            0.03781789541244507
          ],
          [
            -0.05126176401972771,
            0.0652693510055542,
            0.19583699107170105
          ]
        ],
        [
          [
            0.5504992008209229,
            0.3545844554901123,
            0.4034438133239746
          ],
          [
            0.4060216248035431,
            0.39412713050842285,
            0.34863319993019104
          ],
          [
            0.3750877380371094,
            0.27486902475357056,
            0.30370309948921204
          ]
        ],
        [
          [
            -0.09207965433597565,
            -0.08045686781406403,
            0.05828666687011719
          ],
          [
            -0.1330331563949585,
            -0.04839527979493141,
            -0.030018508434295654
          ],
          [
            -0.16019472479820251,
            -0.028799936175346375,
            0.0031375065445899963
          ]
        ],
        [
          [
            0.14453332126140594,
            0.1401704102754593,
            -0.09856362640857697
          ],
          [
            0.06702303886413574,
            0.15456745028495789,
            0.08983892947435379
          ],
          [
            0.1375952661037445,
            0.15033040940761566,
            -0.010364394634962082
          ]
        ],
        [
          [
            0.05136788263916969,
            -0.043994829058647156,
            -0.04300375655293465
          ],
          [
            0.03135709837079048,
            0.025375405326485634,
            -0.004799442831426859
          ],
          [
            -0.013538072817027569,
            -0.08656911551952362,
            -0.014289962127804756
          ]
        ],
        [
          [
            0.07248280197381973,
            0.04128071665763855,
            0.07841847091913223
          ],
          [
            0.08722327649593353,
            0.04627818614244461,
            0.11664115637540817
          ],
          [
            -0.01623600535094738,
            0.02730526588857174,
            -0.05755845457315445
          ]
        ],
        [
          [
            0.11188135296106339,
            0.026346011087298393,
            0.03894595801830292
          ],
          [
            0.06514822691679001,
            0.06890714913606644,
            -0.015344724990427494
          ],
          [
            0.008978109806776047,
            0.06423381716012955,
            -0.04304159805178642
          ]
        ],
        [
          [
            0.0545051135122776,
            0.1192086786031723,
            -0.052130866795778275
          ],
          [
            0.1106971949338913,
            0.08841194957494736,
            -0.08526136726140976
          ],
          [
            0.10650375485420227,
            -0.021174434572458267,
            -0.03187938779592514
          ]
        ],
        [
          [
            -0.09640154242515564,
            0.002921982668340206,
            0.060744721442461014
          ],
          [
            -0.15315774083137512,
            -0.02287023700773716,
            -0.059371501207351685
          ],
          [
            -0.09303503483533859,
            -0.09782722592353821,
            -0.08534388989210129
          ]
        ]
      ],
      [
        [
          [
            -0.05915917083621025,
            -0.08264957368373871,
            -0.019292790442705154
          ],
          [
            -0.11895973980426788,
            -0.14857110381126404,
            -0.19332820177078247
          ],
          [
            0.20208387076854706,
            -0.06814490258693695,
            -0.04255778715014458
          ]
        ],
        [
          [
            -0.1880248785018921,
            -0.12322070449590683,
            -0.2979387044906616
          ],
          [
            -0.047479353845119476,
            -0.18250297009944916,
            -0.0998915359377861
          ],
          [
            -0.10687597841024399,
            -0.3399283289909363,
            -0.18091660737991333
          ]
        ],
        [
          [
            -0.03208106756210327,
            -0.30954065918922424,
            -0.3345743417739868
          ],
          [
            0.15793421864509583,
            -0.16977299749851227,
            -0.04349791631102562
          ],
          [
            -0.31728699803352356,
            -0.3530453145503998,
            -0.40335556864738464
          ]
        ],
        [
          [
            -0.15368273854255676,
            0.10182617604732513,
            -0.16862483322620392
          ],
          [
            -0.2604762613773346,
            -0.35342535376548767,
            -0.12454980611801147
          ],
          [
            -0.14356012642383575,
            -0.23486094176769257,
            -0.25126612186431885
          ]
        ],
        [
          [
            -0.010306887328624725,
            -0.17610910534858704,
            -0.21362192928791046
          ],
          [
            -0.062482092529535294,
            0.029217461124062538,
            0.016785552725195885
          ],
          [
            -0.021114680916070938,
            -0.01820131577551365,
            -0.09810523688793182
          ]
        ],
        [
          [
            -0.15325966477394104,
            -0.4832407832145691,
            -0.15424814820289612
          ],
          [
            0.07839599251747131,
            -0.40832313895225525,
            0.13638029992580414
          ],
          [
            -0.44289469718933105,
            -0.31674450635910034,
            -0.14400751888751984
          ]
        ],
        [
          [
            0.008010724559426308,
            -0.3526144027709961,
            -0.354182630777359
          ],
          [
            -0.03870224952697754,
            -0.4442923665046692,
            0.03199351951479912
          ],
          [
            -0.2928929328918457,
            -0.251574844121933,
            -0.5466368794441223
          ]
        ],
        [
          [
            -0.22184382379055023,
            -0.3165234923362732,
            -0.43446439504623413
          ],
          [
            -0.3044668138027191,
            -0.2758861780166626,
            -0.456166535615921
          ],
          [
            -0.4119487702846527,
            -0.4663984179496765,
            -0.31989455223083496
          ]
        ],
        [
          [
            -0.3173699378967285,
            0.01467914879322052,
            -0.3086128532886505
          ],
          [
            -0.07848735898733139,
            0.23665228486061096,
            -0.11324139684438705
          ],
          [
            -0.15188011527061462,
            -0.31094667315483093,
            -0.2164517045021057
          ]
        ],
        [
          [
            0.047495726495981216,
            -0.002346126828342676,
            0.01342188473790884
          ],
          [
            0.1304699033498764,
            0.029875608161091805,
            -0.03721075877547264
          ],
          [
            0.1262824982404709,
            0.08553113788366318,
            -0.02289441227912903
          ]
        ],
        [
          [
            -0.06834595650434494,
            0.023611508309841156,
            -0.025382108986377716
          ],
          [
            -0.04090932011604309,
            0.013145295903086662,
            -0.10209571570158005
          ],
          [
            -0.20382750034332275,
            -0.08365702629089355,
            0.01349268201738596
          ]
        ],
        [
          [
            0.054806020110845566,
            0.09701132029294968,
            0.06996486335992813
          ],
          [
            0.09675194323062897,
            0.10599150508642197,
            0.012001294642686844
          ],
          [
            -0.0223014447838068,
            0.10359881818294525,
            -0.005918943323194981
          ]
        ],
        [
          [
            -0.129896342754364,
            -0.283419132232666,
            -0.339656263589859
          ],
          [
            -0.11004961282014847,
            -0.16278135776519775,
            -0.5394576191902161
          ],
          [
            -0.1836637407541275,
            -0.24524012207984924,
            -0.4786469638347626
          ]
        ],
        [
          [
            0.054851800203323364,
            -0.013760804198682308,
            0.12442386150360107
          ],
          [
            0.023231836035847664,
            -0.012207519263029099,
            0.06495872884988785
          ],
          [
            0.045246534049510956,
            0.018651513382792473,
            0.05096753314137459
          ]
        ],
        [
          [
            0.019992003217339516,
            0.02010934241116047,
            -0.10823626071214676
          ],
          [
            0.013256684876978397,
            0.053210023790597916,
            -0.061436060816049576
          ],
          [
            -0.061295438557863235,
            -0.10787823796272278,
            -0.09391668438911438
          ]
        ],
        [
          [
            0.026181675493717194,
            0.07908523082733154,
            0.15005412697792053
          ],
          [
            0.017895763739943504,
            0.012095858342945576,
            0.08589264750480652
          ],
          [
            0.11654210090637207,
            -0.029472937807440758,
            0.08012364059686661
          ]
        ]
      ],
      [
        [
          [
            -0.5110994577407837,
            0.014514812268316746,
            0.24140949547290802
          ],
          [
            -0.20284304022789001,
            0.02033054828643799,
            0.3156066834926605
          ],
          [
            -0.12925510108470917,
            0.173012375831604,
            0.5629487037658691
          ]
        ],
        [
          [
            -0.10342008620500565,
            -0.19850829243659973,
            -0.27934733033180237
          ],
          [
            0.0293646939098835,
            -0.2961327135562897,
            -0.15307128429412842
          ],
          [
            -0.07374240458011627,
            -0.3110588490962982,
            -0.16021478176116943
          ]
        ],
        [
          [
            0.11224615573883057,
            -0.25926926732063293,
            -0.5127704739570618
          ],
          [
            0.25592511892318726,
            0.19762152433395386,
            -0.022983737289905548
          ],
          [
            0.03940805792808533,
            0.3570193350315094,
            0.3864341378211975
          ]
        ],
        [
          [
            0.06525390595197678,
            0.14624954760074615,
            0.05704474076628685
          ],
          [
            -0.08158832043409348,
            -0.33833420276641846,
            -0.08617805689573288
          ],
          [
            -0.09591760486364365,
            -0.2790586054325104,
            -0.11301697790622711
          ]
        ],
        [
          [
            0.046084433794021606,
            0.007425455376505852,
            -0.09779529273509979
          ],
          [
            0.043082352727651596,
            0.09818662703037262,
            0.0707259252667427
          ],
          [
            0.05094476044178009,
            -0.002145657781511545,
            0.027855120599269867
          ]
        ],
        [
          [
            0.12311197817325592,
            -0.35500672459602356,
            -0.07369420677423477
          ],
          [
            0.407407283782959,
            0.10519850999116898,
            0.09360697120428085
          ],
          [
            0.2319556325674057,
            0.2532261610031128,
            0.09413241595029831
          ]
        ],
        [
          [
            0.1748550981283188,
            -0.26402413845062256,
            -0.22751760482788086
          ],
          [
            0.054194848984479904,
            0.13278327882289886,
            0.23364314436912537
          ],
          [
            -0.17644914984703064,
            -0.12894006073474884,
            -0.22398965060710907
          ]
        ],
        [
          [
            -0.08623906224966049,
            -0.19305187463760376,
            -0.2221403270959854
          ],
          [
            -0.18449164927005768,
            -0.20536984503269196,
            -0.1781204640865326
          ],
          [
            -0.25330737233161926,
            -0.1458462029695511,
            -0.1463947743177414
          ]
        ],
        [
          [
            -0.13917477428913116,
            -0.06393637508153915,
            -0.15180930495262146
          ],
          [
            -0.19223250448703766,
            -0.24526014924049377,
            -0.24687711894512177
          ],
          [
            -0.2764037251472473,
            -0.5795511603355408,
            -0.3485259413719177
          ]
        ],
        [
          [
            0.04578012973070145,
            0.017124176025390625,
            0.06958650797605515
          ],
          [
            0.07990895956754684,
            0.1060858890414238,
            -0.0001513655442977324
          ],
          [
            0.08535898476839066,
            0.037723831832408905,
            0.10036441683769226
          ]
        ],
        [
          [
            0.12657800316810608,
            0.04110381752252579,
            0.17722219228744507
          ],
          [
            0.04436618089675903,
            0.032755717635154724,
            0.1263573318719864
          ],
          [
            -0.13898645341396332,
            0.05761988088488579,
            -0.08875633776187897
          ]
        ],
        [
          [
            0.09140659868717194,
            0.06860475242137909,
            0.037950195372104645
          ],
          [
            0.010693826712667942,
            0.011302582919597626,
            -0.022067762911319733
          ],
          [
            -0.041701290756464005,
            0.10494928807020187,
            -0.042802561074495316
          ]
        ],
        [
          [
            0.06289177387952805,
            -0.35603615641593933,
            -0.34461909532546997
          ],
          [
            0.15463416278362274,
            0.04620714485645294,
            -0.3023660182952881
          ],
          [
            0.1951359510421753,
            0.2031068354845047,
            -0.19167694449424744
          ]
        ],
        [
          [
            0.008840366266667843,
            0.023286713287234306,
            0.0024591535329818726
          ],
          [
            -0.031039893627166748,
            0.10125128924846649,
            0.029200920835137367
          ],
          [
            -0.012578234076499939,
            0.08142676204442978,
            -0.032878607511520386
          ]
        ],
        [
          [
            0.09838096052408218,
            0.03636336699128151,
            0.06957974284887314
          ],
          [
            -0.03933224827051163,
            -0.003958181943744421,
            -0.0003867406048811972
          ],
          [
            -0.022570017725229263,
            -0.015678348019719124,
            0.08015819638967514
          ]
        ],
        [
          [
            0.04117625206708908,
            0.08727629482746124,
            -0.01143057644367218
          ],
          [
            0.03314586356282234,
            0.017184287309646606,
            0.12445475161075592
          ],
          [
            0.14925260841846466,
            0.1265854835510254,
            0.1304119974374771
          ]
        ]
      ],
      [
        [
          [
            -0.38695311546325684,
            -0.1513473093509674,
            -0.08539152890443802
          ],
          [
            -0.2416597604751587,
            -0.2183578461408615,
            -0.2050129473209381
          ],
          [
            -0.2893100082874298,
            -0.33401668071746826,
            -0.1272735893726349
          ]
        ],
        [
          [
            -0.016951851546764374,
            -0.09348049014806747,
            -0.09639009088277817
          ],
          [
            -0.11175894737243652,
            -0.01848764158785343,
            -0.1272156983613968
          ],
          [
            -0.06294916570186615,
            0.08405949175357819,
            0.0009751219768077135
          ]
        ],
        [
          [
            0.1082570031285286,
            0.004974662326276302,
            0.039129920303821564
          ],
          [
            0.0018187686800956726,
            0.13547171652317047,
            0.04764467850327492
          ],
          [
            0.000639673147816211,
            0.12679734826087952,
            0.15298914909362793
          ]
        ],
        [
          [
            0.061633214354515076,
            0.02196643128991127,
            -0.03576216101646423
          ],
          [
            0.14011543989181519,
            0.07012245804071426,
            -0.0897749811410904
          ],
          [
            -0.06602955609560013,
            0.12362420558929443,
            0.049451977014541626
          ]
        ],
        [
          [
            0.12097649276256561,
            0.0706150010228157,
            0.17317794263362885
          ],
          [
            0.10374975949525833,
            -0.020730890333652496,
            0.1706875115633011
          ],
          [
            0.03417684882879257,
            0.06019517406821251,
            0.04234025999903679
          ]
        ],
        [
          [
            0.15266850590705872,
            0.07945691049098969,
            0.13579057157039642
          ],
          [
            0.19307368993759155,
            0.1477462202310562,
            0.16385218501091003
          ],
          [
            0.055626679211854935,
            0.06801066547632217,
            0.07256926596164703
          ]
        ],
        [
          [
            0.19520048797130585,
            0.12535223364830017,
            0.07424017041921616
          ],
          [
            0.16198410093784332,
            0.12078265845775604,
            0.18817530572414398
          ],
          [
            -0.018039826303720474,
            0.1041545420885086,
            0.17768388986587524
          ]
        ],
        [
          [
            -0.040162213146686554,
            0.15137116611003876,
            0.058308836072683334
          ],
          [
            -0.04328180477023125,
            -0.032218221575021744,
            0.16548198461532593
          ],
          [
            0.01756288670003414,
            -0.04583120718598366,
            0.11181264370679855
          ]
        ],
        [
          [
            0.26234397292137146,
            0.2501908242702484,
            0.36862418055534363
          ],
          [
            0.29936134815216064,
            0.3155004382133484,
            0.47522908449172974
          ],
          [
            0.3484562039375305,
            0.394133597612381,
            0.4916042387485504
          ]
        ],
        [
          [
            0.04853435605764389,
            0.1413210779428482,
            0.1318155974149704
          ],
          [
            0.09915532171726227,
            0.06062318757176399,
            0.14196838438510895
          ],
          [
            0.18944679200649261,
            0.05997789278626442,
            0.09086338430643082
          ]
        ],
        [
          [
            0.18957176804542542,
            0.1860915869474411,
            0.09798607975244522
          ],
          [
            0.031473997980356216,
            0.13882029056549072,
            0.2969762086868286
          ],
          [
            0.176412433385849,
            0.13623633980751038,
            0.10681360960006714
          ]
        ],
        [
          [
            -0.02365933731198311,
            0.059560537338256836,
            0.006805636454373598
          ],
          [
            -0.05903568118810654,
            0.06840591132640839,
            -0.005676198750734329
          ],
          [
            0.07046473771333694,
            -0.00482065137475729,
            -0.0024458663538098335
          ]
        ],
        [
          [
            -0.09683284163475037,
            -0.038854435086250305,
            0.06169676408171654
          ],
          [
            -0.05445607379078865,
            0.0033435290679335594,
            -0.029538758099079132
          ],
          [
            -0.03467202186584473,
            -0.023825470358133316,
            -0.07273179292678833
          ]
        ],
        [
          [
            -0.022077661007642746,
            0.032481998205184937,
            0.0522993840277195
          ],
          [
            -0.037457335740327835,
            -0.05510470271110535,
            0.0007781389285810292
          ],
          [
            -0.04242635518312454,
            0.04058749973773956,
            0.024141507223248482
          ]
        ],
        [
          [
            -0.07504325360059738,
            0.1014653816819191,
            0.05858466774225235
          ],
          [
            -0.042725853621959686,
            -0.01072725746780634,
            -0.014435697346925735
          ],
          [
            0.08974573761224747,
            -0.06406745314598083,
            -0.09214328229427338
          ]
        ],
        [
          [
            -0.05338113009929657,
            0.005602397955954075,
            -0.08052557706832886
          ],
          [
            -0.04443837329745293,
            -0.1357458382844925,
            -0.03922748565673828
          ],
          [
            -0.012349805794656277,
            -0.01083989068865776,
            -0.11292479187250137
          ]
        ]
      ],
      [
        [
          [
            -0.4219059348106384,
            -0.21534764766693115,
            -0.3050406277179718
          ],
          [
            -0.3428712487220764,
            -0.392198771238327,
            -0.1979801505804062
          ],
          [
            -0.44120052456855774,
            -0.3053881525993347,
            -0.19628363847732544
          ]
        ],
        [
          [
            0.03205270320177078,
            -0.025400491431355476,
            0.015641503036022186
          ],
          [
            0.09753408282995224,
            -0.10209907591342926,
            -0.03365134075284004
          ],
          [
            -0.05814507231116295,
            0.02646118775010109,
            -0.08809105306863785
          ]
        ],
        [
          [
            -0.0026535126380622387,
            0.020959747955203056,
            0.17308388650417328
          ],
          [
            0.09566836059093475,
            0.12980976700782776,
            0.11330559104681015
          ],
          [
            0.0746774896979332,
            0.01834597811102867,
            -0.07887180894613266
          ]
        ],
        [
          [
            0.07445260137319565,
            -0.0220396276563406,
            -0.012090140022337437
          ],
          [
            0.04903301224112511,
            0.04275266081094742,
            -0.0747804343700409
          ],
          [
            0.03626258298754692,
            0.06687755882740021,
            0.07206534594297409
          ]
        ],
        [
          [
            0.022380635142326355,
            -0.03574344515800476,
            0.07553190737962723
          ],
          [
            -0.021260006353259087,
            0.10816393047571182,
            0.12062519788742065
          ],
          [
            -0.02401355654001236,
            0.08583203703165054,
            0.06833737343549728
          ]
        ],
        [
          [
            0.07686100900173187,
            0.1517748087644577,
            0.22896137833595276
          ],
          [
            0.09144416451454163,
            0.0932135060429573,
            0.11095453798770905
          ],
          [
            0.12811148166656494,
            0.15058021247386932,
            0.06354892253875732
          ]
        ],
        [
          [
            0.05498088523745537,
            0.09941614419221878,
            0.11184753477573395
          ],
          [
            0.15164834260940552,
            0.22230224311351776,
            0.1549708992242813
          ],
          [
            0.055888831615448,
            0.08037900924682617,
            0.11466991901397705
          ]
        ],
        [
          [
            -0.09787455946207047,
            0.14370837807655334,
            0.1415684074163437
          ],
          [
            -0.08899152278900146,
            0.03235262259840965,
            0.06823068112134933
          ],
          [
            -0.000512193888425827,
            0.03858797997236252,
            0.10983367264270782
          ]
        ],
        [
          [
            0.42792996764183044,
            0.3902864456176758,
            0.45320186018943787
          ],
          [
            0.37595856189727783,
            0.3501332700252533,
            0.3368229866027832
          ],
          [
            0.4712808132171631,
            0.3727930784225464,
            0.3975886404514313
          ]
        ],
        [
          [
            0.07369592785835266,
            -0.06181183084845543,
            0.10672027617692947
          ],
          [
            0.031210698187351227,
            -0.02420472912490368,
            0.08222850412130356
          ],
          [
            0.005638674832880497,
            0.0562247633934021,
            0.06224938854575157
          ]
        ],
        [
          [
            0.027177849784493446,
            0.010140124708414078,
            -0.05076064541935921
          ],
          [
            0.059047915041446686,
            0.12690433859825134,
            -0.007156237959861755
          ],
          [
            -0.05888507515192032,
            0.07410173118114471,
            0.11317338049411774
          ]
        ],
        [
          [
            0.01431655790656805,
            -0.020878903567790985,
            -0.05116584151983261
          ],
          [
            -0.005829270463436842,
            -0.03302630037069321,
            0.015635086223483086
          ],
          [
            0.05060668662190437,
            -0.0165061317384243,
            -0.058644529432058334
          ]
        ],
        [
          [
            0.07084877043962479,
            0.07874836027622223,
            0.056626688688993454
          ],
          [
            0.02428019419312477,
            -0.05472753569483757,
            0.03328174352645874
          ],
          [
            -0.05363358184695244,
            0.01978847198188305,
            -0.023205755278468132
          ]
        ],
        [
          [
            -0.033149465918540955,
            0.012960704043507576,
            -0.002531456295400858
          ],
          [
            -0.029547985643148422,
            -0.07323016226291656,
            -0.03315507248044014
          ],
          [
            0.03927725926041603,
            0.07143890857696533,
            0.07415242493152618
          ]
        ],
        [
          [
            0.05515242740511894,
            0.05768336355686188,
            0.059700652956962585
          ],
          [
            -0.050883129239082336,
            0.03823331370949745,
            -0.023756878450512886
          ],
          [
            0.013012458570301533,
            -0.05552440136671066,
            0.0332450345158577
          ]
        ],
        [
          [
            -0.14381787180900574,
            -0.05338582396507263,
            0.003071453655138612
          ],
          [
            -0.08972564339637756,
            -0.0881279930472374,
            -0.03825928270816803
          ],
          [
            -0.12614354491233826,
            -0.032006729394197464,
            -0.1251911222934723
          ]
        ]
      ],
      [
        [
          [
            -0.4283317029476166,
            -0.3305058777332306,
            -0.305228590965271
          ],
          [
            -0.5041007399559021,
            -0.2900894284248352,
            -0.2840186655521393
          ],
          [
            -0.4097527861595154,
            -0.4463987946510315,
            -0.2448892891407013
          ]
        ],
        [
          [
            0.08221500366926193,
            -0.04369877651333809,
            0.04861887916922569
          ],
          [
            0.01965809427201748,
            0.008522408083081245,
            0.03591078519821167
          ],
          [
            -0.06038178876042366,
            0.051173627376556396,
            0.022746823728084564
          ]
        ],
        [
          [
            0.11989367753267288,
            0.08574755489826202,
            0.1074051782488823
          ],
          [
            0.09250455349683762,
            0.11364175379276276,
            0.11131611466407776
          ],
          [
            0.08910965174436569,
            0.015067026950418949,
            0.13250821828842163
          ]
        ],
        [
          [
            -0.004290371667593718,
            -0.020272552967071533,
            -0.04509897157549858
          ],
          [
            -0.01089836098253727,
            -0.00868695043027401,
            0.10406282544136047
          ],
          [
            0.027812225744128227,
            -0.01885208673775196,
            0.07969159632921219
          ]
        ],
        [
          [
            0.07878965884447098,
            0.08072590082883835,
            0.13454478979110718
          ],
          [
            -0.011361042968928814,
            -0.005081667099148035,
            0.1002696231007576
          ],
          [
            -0.0063269236125051975,
            -0.0804055780172348,
            -0.022516174241900444
          ]
        ],
        [
          [
            0.20748379826545715,
            0.12079295516014099,
            0.24865707755088806
          ],
          [
            0.13702547550201416,
            0.0764104500412941,
            0.19777576625347137
          ],
          [
            0.07280784100294113,
            0.05552397295832634,
            0.21608009934425354
          ]
        ],
        [
          [
            0.10983291268348694,
            0.19813592731952667,
            0.1374681144952774
          ],
          [
            0.1624959260225296,
            0.18396396934986115,
            0.07558050006628036
          ],
          [
            0.1127307265996933,
            0.157956063747406,
            0.1208292692899704
          ]
        ],
        [
          [
            0.07424717396497726,
            0.03319641202688217,
            0.0438690111041069
          ],
          [
            0.04869809374213219,
            0.025244656950235367,
            0.1563286930322647
          ],
          [
            0.04834743216633797,
            0.11299371719360352,
            0.06894008815288544
          ]
        ],
        [
          [
            0.1716703176498413,
            0.18022514879703522,
            0.3303349018096924
          ],
          [
            0.09894801676273346,
            0.12676677107810974,
            0.25336769223213196
          ],
          [
            0.2909153699874878,
            0.21885289251804352,
            0.24888333678245544
          ]
        ],
        [
          [
            0.0010969577124342322,
            -0.050640128552913666,
            0.02130003273487091
          ],
          [
            -0.09462282806634903,
            -0.019803687930107117,
            0.053441546857357025
          ],
          [
            0.01757734641432762,
            -0.011603816412389278,
            0.05125413462519646
          ]
        ],
        [
          [
            0.07171997427940369,
            0.024120349436998367,
            0.08616722375154495
          ],
          [
            -0.028876585885882378,
            -0.026698557659983635,
            -0.021770555526018143
          ],
          [
            0.06485988944768906,
            0.06582804024219513,
            0.017134949564933777
          ]
        ],
        [
          [
            0.10905424505472183,
            0.03463716804981232,
            -0.005218932405114174
          ],
          [
            -0.04794279485940933,
            0.07773052155971527,
            0.045163363218307495
          ],
          [
            -0.02919900231063366,
            0.06454651057720184,
            -0.050988465547561646
          ]
        ],
        [
          [
            -0.03319546952843666,
            -0.026309695094823837,
            0.05572425201535225
          ],
          [
            0.04655783623456955,
            0.05650227144360542,
            0.06547539681196213
          ],
          [
            0.06875293701887131,
            0.0026500136591494083,
            0.06526371836662292
          ]
        ],
        [
          [
            0.07654215395450592,
            -0.05551731586456299,
            0.0043459683656692505
          ],
          [
            0.0858088880777359,
            -0.0239825788885355,
            0.021995482966303825
          ],
          [
            -0.0372217632830143,
            0.047995977103710175,
            0.04338905215263367
          ]
        ],
        [
          [
            0.03213657811284065,
            -0.036345917731523514,
            -0.036692943423986435
          ],
          [
            0.0015748337609693408,
            0.07613694667816162,
            0.060678623616695404
          ],
          [
            -0.04165301471948624,
            0.1097850501537323,
            0.11981284618377686
          ]
        ],
        [
          [
            -0.06297781318426132,
            -0.07330504804849625,
            -0.10018294304609299
          ],
          [
            -0.06477728486061096,
            0.059497758746147156,
            -0.12127602100372314
          ],
          [
            0.027648204937577248,
            0.010412881150841713,
            -0.014652225188910961
          ]
        ]
      ],
      [
        [
          [
            -0.24280937016010284,
            -0.22128716111183167,
            -0.36682769656181335
          ],
          [
            -0.24734434485435486,
            -0.2708587050437927,
            -0.2722657024860382
          ],
          [
            -0.361069917678833,
            -0.3889208137989044,
            -0.22487413883209229
          ]
        ],
        [
          [
            0.09971759468317032,
            -0.0376831516623497,
            0.01769127883017063
          ],
          [
            0.0879250094294548,
            0.010273842141032219,
            -0.0119184460490942
          ],
          [
            0.09535332024097443,
            -0.09393234550952911,
            -0.09241665154695511
          ]
        ],
        [
          [
            0.07885376363992691,
            0.08689580112695694,
            0.23606543242931366
          ],
          [
            0.03218638896942139,
            0.0593181848526001,
            0.14111413061618805
          ],
          [
            0.011996157467365265,
            0.05671698600053787,
            -0.05835197493433952
          ]
        ],
        [
          [
            0.08670361340045929,
            0.023823052644729614,
            -0.028980163857340813
          ],
          [
            -0.011832412332296371,
            -0.011305415071547031,
            0.024043472483754158
          ],
          [
            0.05246606469154358,
            -0.05727711692452431,
            -0.11098303645849228
          ]
        ],
        [
          [
            -0.004438937641680241,
            0.08632847666740417,
            0.17121130228042603
          ],
          [
            0.08387725800275803,
            0.12217535078525543,
            0.14549387991428375
          ],
          [
            0.07710056006908417,
            0.019588833674788475,
            0.10839207470417023
          ]
        ],
        [
          [
            0.14341197907924652,
            0.10976239293813705,
            0.30171987414360046
          ],
          [
            0.06391163915395737,
            0.2230110615491867,
            0.1510469764471054
          ],
          [
            0.19157084822654724,
            0.16437135636806488,
            0.07349702715873718
          ]
        ],
        [
          [
            0.07346596568822861,
            0.1413426548242569,
            0.29888471961021423
          ],
          [
            0.07656514644622803,
            0.12497637420892715,
            0.16384370625019073
          ],
          [
            0.15362109243869781,
            0.22045999765396118,
            0.14054159820079803
          ]
        ],
        [
          [
            -0.05600752308964729,
            0.07568605989217758,
            0.07272130995988846
          ],
          [
            0.06615050882101059,
            0.1676662117242813,
            0.11579868197441101
          ],
          [
            0.11378215998411179,
            0.04058817774057388,
            0.10106708109378815
          ]
        ],
        [
          [
            0.4228147864341736,
            0.2841513156890869,
            0.363759309053421
          ],
          [
            0.2960790693759918,
            0.3185115158557892,
            0.3352755904197693
          ],
          [
            0.45710840821266174,
            0.35963892936706543,
            0.32082778215408325
          ]
        ],
        [
          [
            0.031887486577034,
            0.06521856784820557,
            0.03746003285050392
          ],
          [
            -0.09189833700656891,
            0.007017312105745077,
            -0.034593887627124786
          ],
          [
            -0.08664257824420929,
            -0.0008945707231760025,
            0.07862754911184311
          ]
        ],
        [
          [
            0.1925581991672516,
            0.18551349639892578,
            0.08386407047510147
          ],
          [
            0.10086632519960403,
            0.1710997372865677,
            -0.023994706571102142
          ],
          [
            0.15569666028022766,
            0.07236501574516296,
            0.0384715273976326
          ]
        ],
        [
          [
            0.07448256760835648,
            0.034221403300762177,
            -0.04213466867804527
          ],
          [
            -0.06980907171964645,
            -0.07758067548274994,
            0.05633318051695824
          ],
          [
            0.002093573333695531,
            -0.040414731949567795,
            -0.03180186077952385
          ]
        ],
        [
          [
            -0.03635530173778534,
            0.0620347298681736,
            0.0018028980121016502
          ],
          [
            0.019993716850876808,
            0.039512068033218384,
            -0.027150597423315048
          ],
          [
            0.03390689194202423,
            0.05539417266845703,
            0.05107958987355232
          ]
        ],
        [
          [
            0.08656495064496994,
            -0.07365738600492477,
            -0.09156941622495651
          ],
          [
            -0.04387175291776657,
            -0.1011689081788063,
            0.06669364124536514
          ],
          [
            -0.0734596773982048,
            0.02652106247842312,
            -0.011089468374848366
          ]
        ],
        [
          [
            0.06885283440351486,
            0.023560404777526855,
            0.05706481263041496
          ],
          [
            -0.05669588968157768,
            -0.00205267989076674,
            0.019637975841760635
          ],
          [
            0.08389373123645782,
            0.039644259959459305,
            0.02553095854818821
          ]
        ],
        [
          [
            -0.08695603907108307,
            -0.04350921884179115,
            -0.03277526795864105
          ],
          [
            -0.08980867266654968,
            -0.009766391478478909,
            0.004095659591257572
          ],
          [
            -0.01947598345577717,
            -0.07145961374044418,
            -0.034927982836961746
          ]
        ]
      ],
      [
        [
          [
            -0.41448891162872314,
            -0.2320983111858368,
            -0.11242035776376724
          ],
          [
            -0.3698008358478546,
            -0.3312651515007019,
            -0.19826574623584747
          ],
          [
            -0.27749982476234436,
            -0.4489724934101105,
            -0.3002752661705017
          ]
        ],
        [
          [
            0.007965496741235256,
            0.058013275265693665,
            0.004678238648921251
          ],
          [
            -0.03129462152719498,
            -0.08456011116504669,
            -0.011345506645739079
          ],
          [
            0.047206442803144455,
            -0.005139636807143688,
            -0.06171499565243721
          ]
        ],
        [
          [
            0.13024139404296875,
            0.08986632525920868,
            0.16262699663639069
          ],
          [
            -0.00034665054408833385,
            0.0702059417963028,
            0.09571094810962677
          ],
          [
            0.020679624751210213,
            0.018527241423726082,
            -0.0114586828276515
          ]
        ],
        [
          [
            0.08532404899597168,
            -0.0615077018737793,
            -0.02604052424430847
          ],
          [
            -0.004226207733154297,
            -0.04082374647259712,
            0.006639061961323023
          ],
          [
            0.056067246943712234,
            -0.05961702764034271,
            0.03473493084311485
          ]
        ],
        [
          [
            0.11188016086816788,
            0.1151805892586708,
            0.22729286551475525
          ],
          [
            0.0027263788506388664,
            0.07659998536109924,
            0.1269950270652771
          ],
          [
            0.08149510622024536,
            0.0994831919670105,
            0.06532687693834305
          ]
        ],
        [
          [
            0.19404399394989014,
            0.21007876098155975,
            0.17335064709186554
          ],
          [
            0.040716324001550674,
            0.07009726017713547,
            0.059062860906124115
          ],
          [
            0.08940999954938889,
            0.027295326814055443,
            0.06872136890888214
          ]
        ],
        [
          [
            0.17373621463775635,
            0.19204850494861603,
            0.16582679748535156
          ],
          [
            0.03465210273861885,
            0.15421977639198303,
            0.11162839829921722
          ],
          [
            0.0012297749053686857,
            -0.007934515364468098,
            0.11870966106653214
          ]
        ],
        [
          [
            0.016422322019934654,
            0.12082251161336899,
            0.030155688524246216
          ],
          [
            -0.02797749824821949,
            0.09023698419332504,
            0.09457098692655563
          ],
          [
            0.002582510933279991,
            -0.03700931742787361,
            0.02558787167072296
          ]
        ],
        [
          [
            0.06805458664894104,
            0.21306414902210236,
            0.21969708800315857
          ],
          [
            0.15525910258293152,
            0.12712447345256805,
            0.18008600175380707
          ],
          [
            0.27927348017692566,
            0.23152339458465576,
            0.29664963483810425
          ]
        ],
        [
          [
            0.11497384309768677,
            0.0016263441648334265,
            0.12030152231454849
          ],
          [
            0.047503016889095306,
            0.05041706934571266,
            0.05004848167300224
          ],
          [
            0.1489054560661316,
            0.057392679154872894,
            0.1191152036190033
          ]
        ],
        [
          [
            0.161071315407753,
            0.08851877599954605,
            0.22349019348621368
          ],
          [
            0.22090645134449005,
            0.14461059868335724,
            0.09428826719522476
          ],
          [
            0.2568359076976776,
            0.22442908585071564,
            0.16371312737464905
          ]
        ],
        [
          [
            -0.012469381093978882,
            -0.023821745067834854,
            0.0798385962843895
          ],
          [
            0.09009183198213577,
            -0.0075946589931845665,
            0.03770875930786133
          ],
          [
            0.06809493899345398,
            -0.035639695823192596,
            0.036471739411354065
          ]
        ],
        [
          [
            -0.08900135010480881,
            -0.05890703573822975,
            0.08707083761692047
          ],
          [
            -0.018336741253733635,
            -0.10262279957532883,
            -0.10242516547441483
          ],
          [
            -0.07380528002977371,
            -0.05174010246992111,
            -0.027984704822301865
          ]
        ],
        [
          [
            -0.017090795561671257,
            0.043967947363853455,
            0.061048153787851334
          ],
          [
            0.08273587375879288,
            0.029295288026332855,
            0.057958368211984634
          ],
          [
            0.09008774161338806,
            0.04997732862830162,
            0.10948603600263596
          ]
        ],
        [
          [
            0.09382862597703934,
            0.05980248376727104,
            0.012837452813982964
          ],
          [
            0.002286813920363784,
            -0.05635232478380203,
            0.0014381767250597477
          ],
          [
            -0.0078092520125210285,
            -0.05387963727116585,
            0.09758473187685013
          ]
        ],
        [
          [
            -0.03717989847064018,
            -0.034054774791002274,
            -0.040003035217523575
          ],
          [
            0.008336158469319344,
            -0.01534438505768776,
            0.05180492252111435
          ],
          [
            0.005410454701632261,
            -0.006569229532033205,
            -0.003689342876896262
          ]
        ]
      ],
      [
        [
          [
            -0.16013941168785095,
            -0.24545174837112427,
            -0.2198118269443512
          ],
          [
            -0.3109031617641449,
            -0.1919785737991333,
            -0.25046414136886597
          ],
          [
            -0.5826729536056519,
            -0.47360777854919434,
            -0.4639829099178314
          ]
        ],
        [
          [
            0.0271841362118721,
            -0.05683781951665878,
            0.04865119978785515
          ],
          [
            -0.05217774212360382,
            -0.05807420238852501,
            -0.006199741270393133
          ],
          [
            -0.09670742601156235,
            -0.1316187083721161,
            -0.1718830019235611
          ]
        ],
        [
          [
            0.042161423712968826,
            0.018207866698503494,
            0.25593769550323486
          ],
          [
            -0.060565248131752014,
            0.036651767790317535,
            0.07218633592128754
          ],
          [
            -0.05179737135767937,
            0.007382483687251806,
            0.08279602229595184
          ]
        ],
        [
          [
            0.04547683522105217,
            -0.06321074813604355,
            -0.07983938604593277
          ],
          [
            -0.09077542275190353,
            0.04160557687282562,
            -0.05533042177557945
          ],
          [
            0.1049685850739479,
            -0.014331575483083725,
            -0.029371971264481544
          ]
        ],
        [
          [
            0.08120323717594147,
            0.10882535576820374,
            0.07160570472478867
          ],
          [
            -0.09302963316440582,
            0.04832451790571213,
            0.1037970632314682
          ],
          [
            -0.010097927413880825,
            0.005985884461551905,
            0.00811395887285471
          ]
        ],
        [
          [
            0.006574003957211971,
            0.11794677376747131,
            0.1570141464471817
          ],
          [
            0.023800743743777275,
            0.10692602396011353,
            0.23278993368148804
          ],
          [
            0.082740418612957,
            0.08755083382129669,
            0.17173320055007935
          ]
        ],
        [
          [
            0.0274495929479599,
            0.06458614021539688,
            0.28601425886154175
          ],
          [
            0.004299290012568235,
            0.14903251826763153,
            0.1676502823829651
          ],
          [
            0.08218441903591156,
            0.15251624584197998,
            0.15128546953201294
          ]
        ],
        [
          [
            0.10339279472827911,
            0.16309134662151337,
            0.2201312780380249
          ],
          [
            0.04653777554631233,
            0.1453026384115219,
            0.18516838550567627
          ],
          [
            -0.0713157057762146,
            0.09132282435894012,
            0.14216968417167664
          ]
        ],
        [
          [
            0.5432243943214417,
            0.40119966864585876,
            0.4822699725627899
          ],
          [
            0.4792247414588928,
            0.33312031626701355,
            0.3437471389770508
          ],
          [
            0.5370989441871643,
            0.5268851518630981,
            0.5293973088264465
          ]
        ],
        [
          [
            0.01358872652053833,
            -0.01025713887065649,
            0.07791902124881744
          ],
          [
            0.04579862579703331,
            -0.04291292279958725,
            -0.04013262689113617
          ],
          [
            -0.0063954927027225494,
            -0.08075009286403656,
            0.019663536921143532
          ]
        ],
        [
          [
            0.03966882824897766,
            -0.06988824903964996,
            0.02124660089612007
          ],
          [
            0.05066237971186638,
            -0.019673535600304604,
            -0.0013033465947955847
          ],
          [
            0.06889431923627853,
            0.026738595217466354,
            0.028762005269527435
          ]
        ],
        [
          [
            0.09405427426099777,
            0.06104905903339386,
            0.07679930329322815
          ],
          [
            0.08984944224357605,
            0.047304555773735046,
            -0.00776042090728879
          ],
          [
            -0.049881380051374435,
            -0.007467038929462433,
            0.023395312950015068
          ]
        ],
        [
          [
            -0.066195547580719,
            0.1339801549911499,
            0.07972750067710876
          ],
          [
            -0.14548832178115845,
            -0.04356711730360985,
            0.11394261568784714
          ],
          [
            -0.12927760183811188,
            -0.07769916206598282,
            0.03722887858748436
          ]
        ],
        [
          [
            -0.012874660082161427,
            0.062147680670022964,
            -0.06738302856683731
          ],
          [
            0.002246732823550701,
            0.023661382496356964,
            0.0716119334101677
          ],
          [
            0.03679482638835907,
            -0.025829896330833435,
            0.07266536355018616
          ]
        ],
        [
          [
            0.09563089162111282,
            0.11821279674768448,
            0.007266543805599213
          ],
          [
            -0.04033409431576729,
            -0.06214456632733345,
            0.05548324063420296
          ],
          [
            0.008251219987869263,
            -0.056560415774583817,
            0.0019848814699798822
          ]
        ],
        [
          [
            0.003991233184933662,
            -0.12377598136663437,
            -0.10382171720266342
          ],
          [
            -0.10487515479326248,
            -0.03973560780286789,
            -0.06716747581958771
          ],
          [
            0.014343390241265297,
            -0.009063097648322582,
            0.007153897080570459
          ]
        ]
      ],
      [
        [
          [
            0.09691385924816132,
            0.2136785387992859,
            0.2010812908411026
          ],
          [
            -0.020193900913000107,
            -0.20999297499656677,
            0.038364000618457794
          ],
          [
            0.12914614379405975,
            -0.2953276038169861,
            -0.049318358302116394
          ]
        ],
        [
          [
            -0.260165810585022,
            -0.1514001190662384,
            -0.24655382335186005
          ],
          [
            0.0376352034509182,
            -0.05853497236967087,
            -0.2881525754928589
          ],
          [
            0.011987685225903988,
            -0.013437426649034023,
            -0.18418599665164948
          ]
        ],
        [
          [
            -0.1622062623500824,
            -0.43986284732818604,
            -0.47618046402931213
          ],
          [
            0.018686136230826378,
            0.24260227382183075,
            -0.0617278553545475
          ],
          [
            -0.1444811075925827,
            0.3602592349052429,
            0.5922403335571289
          ]
        ],
        [
          [
            0.25238654017448425,
            0.35595500469207764,
            -0.12866954505443573
          ],
          [
            0.1916794627904892,
            -0.02877584658563137,
            -0.08901601284742355
          ],
          [
            -0.028989726677536964,
            -0.059385158121585846,
            -0.2757953107357025
          ]
        ],
        [
          [
            -0.1619882732629776,
            -0.029589679092168808,
            0.01566171832382679
          ],
          [
            0.07236021757125854,
            0.10712955892086029,
            0.06551855802536011
          ],
          [
            0.08476842194795609,
            0.085478276014328,
            0.0062032598070800304
          ]
        ],
        [
          [
            -0.1858736276626587,
            -0.517859160900116,
            0.021747997030615807
          ],
          [
            0.1825895458459854,
            -0.004778178874403238,
            -0.02539118006825447
          ],
          [
            0.02868151105940342,
            0.33283311128616333,
            0.013492753729224205
          ]
        ],
        [
          [
            -0.03357930853962898,
            -0.5075619220733643,
            -0.3922237753868103
          ],
          [
            -0.0718124583363533,
            -0.18193133175373077,
            0.012710686773061752
          ],
          [
            -0.14145033061504364,
            0.06004749983549118,
            -0.14125587046146393
          ]
        ],
        [
          [
            -0.1937609165906906,
            -0.17172443866729736,
            -0.15001754462718964
          ],
          [
            -0.22688718140125275,
            -0.1425575315952301,
            -0.12590205669403076
          ],
          [
            -0.2170475572347641,
            -0.19251494109630585,
            -0.1588887870311737
          ]
        ],
        [
          [
            0.25481683015823364,
            0.24196472764015198,
            -0.3241206705570221
          ],
          [
            0.18187782168388367,
            -0.02399102784693241,
            0.023532230406999588
          ],
          [
            -0.36358895897865295,
            -0.31237977743148804,
            -0.34831658005714417
          ]
        ],
        [
          [
            0.05463167279958725,
            0.016237037256360054,
            -0.03386974334716797
          ],
          [
            0.07207722961902618,
            -0.029973629862070084,
            0.08037509024143219
          ],
          [
            0.003870665095746517,
            0.012008549645543098,
            0.01643936149775982
          ]
        ],
        [
          [
            0.06156056001782417,
            0.1474672108888626,
            0.19736766815185547
          ],
          [
            -0.005633755587041378,
            0.13793498277664185,
            0.16405417025089264
          ],
          [
            -0.1409950703382492,
            0.031447164714336395,
            0.11145247519016266
          ]
        ],
        [
          [
            0.09217531234025955,
            0.009256891906261444,
            0.10094693303108215
          ],
          [
            0.10710503160953522,
            0.009343928657472134,
            0.0023141601122915745
          ],
          [
            0.06773011386394501,
            -0.011659546755254269,
            -0.04340898618102074
          ]
        ],
        [
          [
            -0.27217406034469604,
            -0.3777708113193512,
            -0.39189931750297546
          ],
          [
            0.22528447210788727,
            -0.1293744444847107,
            -0.5622475147247314
          ],
          [
            0.23619279265403748,
            0.3101910948753357,
            -0.3221198618412018
          ]
        ],
        [
          [
            0.0005070300539955497,
            0.11959843337535858,
            0.11158281564712524
          ],
          [
            0.016918817535042763,
            0.06444859504699707,
            0.07741609960794449
          ],
          [
            0.08608317375183105,
            -0.012800331227481365,
            0.09100937843322754
          ]
        ],
        [
          [
            0.13266679644584656,
            -0.08228512108325958,
            -0.08860031515359879
          ],
          [
            0.048570454120635986,
            -0.0028042648918926716,
            -0.031352583318948746
          ],
          [
            -0.01077967882156372,
            0.01397762168198824,
            -0.002983114216476679
          ]
        ],
        [
          [
            0.08141312748193741,
            0.03748844191431999,
            0.12604793906211853
          ],
          [
            -0.046066347509622574,
            0.09155411273241043,
            0.12468601763248444
          ],
          [
            0.02634938433766365,
            0.11821238696575165,
            0.10054682940244675
          ]
        ]
      ],
      [
        [
          [
            -0.23775504529476166,
            -0.14028041064739227,
            -0.02459676004946232
          ],
          [
            -0.372846782207489,
            -0.23747286200523376,
            -0.19023136794567108
          ],
          [
            -0.28635191917419434,
            -0.32073527574539185,
            -0.2447112500667572
          ]
        ],
        [
          [
            -0.09782053530216217,
            -0.01229923591017723,
            0.01606018655002117
          ],
          [
            -0.09229844808578491,
            0.02131514996290207,
            -0.057791173458099365
          ],
          [
            0.022155242040753365,
            -0.023124935105443,
            -0.14004547894001007
          ]
        ],
        [
          [
            0.12572436034679413,
            0.0357418917119503,
            0.06952126324176788
          ],
          [
            0.117979995906353,
            0.08311060816049576,
            0.15198345482349396
          ],
          [
            0.07482922077178955,
            0.08186064660549164,
            0.030095525085926056
          ]
        ],
        [
          [
            -0.008961078710854053,
            0.030208135023713112,
            -0.06619464606046677
          ],
          [
            0.045889630913734436,
            0.022887714207172394,
            -0.006391429342329502
          ],
          [
            0.05023301765322685,
            -0.028958512470126152,
            -0.02095198445022106
          ]
        ],
        [
          [
            0.2230297178030014,
            0.16374647617340088,
            0.14807277917861938
          ],
          [
            0.1560034304857254,
            0.11116064339876175,
            0.12793484330177307
          ],
          [
            0.17159898579120636,
            -0.026835972443223,
            0.07089122384786606
          ]
        ],
        [
          [
            0.11920284479856491,
            0.19720016419887543,
            0.19696013629436493
          ],
          [
            0.09177262336015701,
            0.17845216393470764,
            0.1317042112350464
          ],
          [
            0.009441138245165348,
            -0.027677489444613457,
            -0.035919494926929474
          ]
        ],
        [
          [
            0.015162145718932152,
            0.1343134492635727,
            0.10763443261384964
          ],
          [
            0.1411120742559433,
            0.10448642075061798,
            0.18643680214881897
          ],
          [
            -0.03412444517016411,
            -0.0030621089972555637,
            0.01659480296075344
          ]
        ],
        [
          [
            0.13330577313899994,
            0.11523488163948059,
            0.07804650813341141
          ],
          [
            0.02354460209608078,
            0.10682585090398788,
            0.022025270387530327
          ],
          [
            -0.07482922077178955,
            0.024189874529838562,
            0.06543908268213272
          ]
        ],
        [
          [
            0.13776057958602905,
            0.23096884787082672,
            0.3886692523956299
          ],
          [
            0.20315228402614594,
            0.14759504795074463,
            0.3332382142543793
          ],
          [
            0.2796887159347534,
            0.25713056325912476,
            0.3341643512248993
          ]
        ],
        [
          [
            0.2166507989168167,
            0.12086563557386398,
            0.047668009996414185
          ],
          [
            0.0957740768790245,
            0.09188011288642883,
            0.09377528727054596
          ],
          [
            0.1648043394088745,
            0.1362227201461792,
            0.009443431161344051
          ]
        ],
        [
          [
            0.2489388883113861,
            0.2511857748031616,
            0.29971662163734436
          ],
          [
            0.18880371749401093,
            0.29517242312431335,
            0.23226062953472137
          ],
          [
            0.2563289403915405,
            0.3039354979991913,
            0.3438895046710968
          ]
        ],
        [
          [
            -0.007700301706790924,
            0.017742829397320747,
            -0.05997881665825844
          ],
          [
            0.0052987984381616116,
            0.03639090806245804,
            0.027929585427045822
          ],
          [
            0.07827387750148773,
            0.020733820274472237,
            0.09372198581695557
          ]
        ],
        [
          [
            0.029685016721487045,
            -0.03308623284101486,
            -0.04744746908545494
          ],
          [
            -0.03408823534846306,
            -0.10727410018444061,
            -0.038843657821416855
          ],
          [
            -0.031545087695121765,
            -0.03733723983168602,
            -0.12571333348751068
          ]
        ],
        [
          [
            0.11539842188358307,
            0.05784230679273605,
            -0.03315862640738487
          ],
          [
            0.0002448178129270673,
            -0.007112887222319841,
            0.0916457325220108
          ],
          [
            0.024356784299016,
            0.0477968230843544,
            0.08967427909374237
          ]
        ],
        [
          [
            -0.000747153942938894,
            -0.019726622849702835,
            0.012992354109883308
          ],
          [
            -0.07689462602138519,
            0.05502256751060486,
            -0.07415366917848587
          ],
          [
            -0.04744430258870125,
            0.029517196118831635,
            0.033524829894304276
          ]
        ],
        [
          [
            0.06131594628095627,
            -0.03449498489499092,
            -0.009675437584519386
          ],
          [
            -0.028319919481873512,
            0.06723295152187347,
            -0.02665880136191845
          ],
          [
            0.06363435089588165,
            -0.010694814845919609,
            0.016384413465857506
          ]
        ]
      ],
      [
        [
          [
            -0.5242742300033569,
            -0.08108235895633698,
            -0.09030690789222717
          ],
          [
            -0.09417888522148132,
            0.4396854043006897,
            0.7719941139221191
          ],
          [
            0.1796308308839798,
            0.42852964997291565,
            0.946738600730896
          ]
        ],
        [
          [
            0.12412261217832565,
            0.015456607565283775,
            -0.17499177157878876
          ],
          [
            -0.03754616156220436,
            -0.05225330591201782,
            -0.012778455391526222
          ],
          [
            0.026830747723579407,
            0.02554735541343689,
            -0.03176107257604599
          ]
        ],
        [
          [
            0.1486915498971939,
            0.18590399622917175,
            -0.10863048583269119
          ],
          [
            0.006632527802139521,
            0.12073233723640442,
            -0.1007034033536911
          ],
          [
            -0.10526758432388306,
            0.06080026924610138,
            0.12376365065574646
          ]
        ],
        [
          [
            0.03180122375488281,
            0.037414394319057465,
            -0.13412441313266754
          ],
          [
            0.09893748164176941,
            0.0717945545911789,
            0.040483731776475906
          ],
          [
            0.13050293922424316,
            0.0906207337975502,
            -0.024558648467063904
          ]
        ],
        [
          [
            0.09113326668739319,
            -0.03911365196108818,
            0.06239582970738411
          ],
          [
            0.08729016035795212,
            0.03162942826747894,
            0.018632739782333374
          ],
          [
            0.0022457456216216087,
            -0.11093804985284805,
            0.11971437931060791
          ]
        ],
        [
          [
            0.17612454295158386,
            0.12741386890411377,
            -0.08478865772485733
          ],
          [
            0.1629217267036438,
            0.1732468605041504,
            0.05192131549119949
          ],
          [
            0.003193741664290428,
            0.24229328334331512,
            0.27247846126556396
          ]
        ],
        [
          [
            0.12637199461460114,
            0.1708652824163437,
            0.004313190001994371
          ],
          [
            0.09759991616010666,
            0.1603793054819107,
            0.2385474145412445
          ],
          [
            -0.07218290120363235,
            0.15646742284297943,
            0.28822559118270874
          ]
        ],
        [
          [
            -0.022291317582130432,
            0.1587066501379013,
            0.14088240265846252
          ],
          [
            -0.2713671028614044,
            -0.22408856451511383,
            0.024265572428703308
          ],
          [
            -0.1632392853498459,
            0.055857978761196136,
            0.22981956601142883
          ]
        ],
        [
          [
            0.5001007318496704,
            0.06106632947921753,
            -0.27442190051078796
          ],
          [
            0.5621079802513123,
            0.5053188800811768,
            0.2672729790210724
          ],
          [
            0.5823107957839966,
            0.606959342956543,
            0.5477796792984009
          ]
        ],
        [
          [
            0.048427797853946686,
            0.017741598188877106,
            -0.03975585848093033
          ],
          [
            -0.04575090855360031,
            -0.09962470084428787,
            -0.06271053105592728
          ],
          [
            0.04021266847848892,
            0.1333026885986328,
            0.060958124697208405
          ]
        ],
        [
          [
            -0.14146451652050018,
            0.03181120380759239,
            0.19294770061969757
          ],
          [
            0.012816091999411583,
            0.04254210367798805,
            0.19109569489955902
          ],
          [
            0.12784835696220398,
            0.1463775485754013,
            0.2081209272146225
          ]
        ],
        [
          [
            -0.06612517684698105,
            0.05699482932686806,
            0.0139342425391078
          ],
          [
            0.021723993122577667,
            -0.07292205840349197,
            0.06339757889509201
          ],
          [
            0.08209771662950516,
            0.031358812004327774,
            0.005844063591212034
          ]
        ],
        [
          [
            0.0035035009495913982,
            -0.018892565742135048,
            -0.05988337844610214
          ],
          [
            -0.10334736853837967,
            -0.2022092640399933,
            -0.11754508316516876
          ],
          [
            -0.05293775349855423,
            0.020628085359930992,
            -0.05495191365480423
          ]
        ],
        [
          [
            -0.07890725880861282,
            -0.06530126184225082,
            0.007972006686031818
          ],
          [
            -0.016252785921096802,
            -0.012402459979057312,
            -0.029907969757914543
          ],
          [
            0.14332127571105957,
            0.1434164047241211,
            0.048763904720544815
          ]
        ],
        [
          [
            -0.026750657707452774,
            -0.07632847130298615,
            -0.0974675863981247
          ],
          [
            0.039226680994033813,
            -0.04164605960249901,
            0.0339752621948719
          ],
          [
            0.056353505700826645,
            0.06393226981163025,
            0.05254900082945824
          ]
        ],
        [
          [
            0.002478217938914895,
            0.06547413766384125,
            -0.022535638883709908
          ],
          [
            -0.08991129696369171,
            0.017889995127916336,
            -0.056196633726358414
          ],
          [
            -0.20447149872779846,
            -0.08919379115104675,
            -0.06781922280788422
          ]
        ]
      ],
      [
        [
          [
            -0.25166866183280945,
            0.0790662094950676,
            0.11083932220935822
          ],
          [
            0.1475629359483719,
            -0.12039465457201004,
            -0.0321473628282547
          ],
          [
            0.1848594844341278,
            0.22260449826717377,
            0.1024952307343483
          ]
        ],
        [
          [
            -0.20554010570049286,
            -0.23955091834068298,
            -0.3051380515098572
          ],
          [
            -0.2659294009208679,
            -0.41494670510292053,
            0.0016050862614065409
          ],
          [
            -0.10077621042728424,
            -0.20513780415058136,
            9.818508988246322e-05
          ]
        ],
        [
          [
            0.0835554301738739,
            -0.348136842250824,
            -0.4383644461631775
          ],
          [
            0.04264485090970993,
            -0.13870687782764435,
            -0.21544913947582245
          ],
          [
            -0.18262918293476105,
            0.33246153593063354,
            -0.06195667013525963
          ]
        ],
        [
          [
            -0.04149917885661125,
            0.10569548606872559,
            -0.036570917814970016
          ],
          [
            -0.04866784065961838,
            -0.2656624913215637,
            0.1717577576637268
          ],
          [
            -0.1346617192029953,
            -0.18907006084918976,
            -0.062221504747867584
          ]
        ],
        [
          [
            -0.02545914426445961,
            -0.14489345252513885,
            -0.10522477328777313
          ],
          [
            0.05017523095011711,
            -0.001105952775105834,
            0.018891019746661186
          ],
          [
            -0.03503886237740517,
            0.028949802741408348,
            0.023910725489258766
          ]
        ],
        [
          [
            -0.030044950544834137,
            -0.3922373056411743,
            0.2041855901479721
          ],
          [
            0.08083290606737137,
            0.0863850936293602,
            0.2718525528907776
          ],
          [
            0.07021187990903854,
            0.07939990609884262,
            -0.2001000940799713
          ]
        ],
        [
          [
            0.03720805421471596,
            -0.5001978278160095,
            0.16359935700893402
          ],
          [
            0.021764859557151794,
            -0.22160954773426056,
            -0.03635069355368614
          ],
          [
            -0.2823753356933594,
            -0.05308937653899193,
            -0.38984596729278564
          ]
        ],
        [
          [
            -0.18711799383163452,
            -0.28859832882881165,
            -0.36673668026924133
          ],
          [
            -0.26723915338516235,
            -0.16569583117961884,
            -0.4138638377189636
          ],
          [
            -0.32298174500465393,
            -0.2265629917383194,
            -0.27227944135665894
          ]
        ],
        [
          [
            -0.03188842907547951,
            0.08049705624580383,
            0.0365152582526207
          ],
          [
            0.19378669559955597,
            0.11649946868419647,
            0.3262978792190552
          ],
          [
            -0.12078867107629776,
            -0.17037801444530487,
            -0.19838805496692657
          ]
        ],
        [
          [
            0.01552426815032959,
            -0.033696647733449936,
            0.0839957743883133
          ],
          [
            0.08014310896396637,
            -0.0020170393399894238,
            0.08184093981981277
          ],
          [
            0.013984434306621552,
            0.04762879014015198,
            -0.0006976763834245503
          ]
        ],
        [
          [
            -0.027034763246774673,
            0.08760581165552139,
            -0.019918566569685936
          ],
          [
            -0.08411236852407455,
            0.0533069483935833,
            -0.06433868408203125
          ],
          [
            -0.14151905477046967,
            -0.07882671803236008,
            -0.025826146826148033
          ]
        ],
        [
          [
            0.006821576971560717,
            0.0309107918292284,
            0.019001489505171776
          ],
          [
            0.00976546946913004,
            -0.005178353749215603,
            0.10357579588890076
          ],
          [
            0.08271801471710205,
            -0.056508779525756836,
            0.06633032858371735
          ]
        ],
        [
          [
            -0.18084044754505157,
            -0.3187566101551056,
            -0.3160289525985718
          ],
          [
            0.04245681315660477,
            -0.20338505506515503,
            -0.4242367744445801
          ],
          [
            0.15994949638843536,
            -0.008734677918255329,
            -0.24678277969360352
          ]
        ],
        [
          [
            0.06912671029567719,
            0.06370031833648682,
            0.04102591797709465
          ],
          [
            0.06591663509607315,
            0.056270502507686615,
            0.10004642605781555
          ],
          [
            0.06156662479043007,
            -0.050678182393312454,
            0.07376305758953094
          ]
        ],
        [
          [
            -0.039881326258182526,
            -0.009144403040409088,
            -0.11696757376194
          ],
          [
            0.00933408085256815,
            0.0019630552269518375,
            0.01117718406021595
          ],
          [
            -0.09183149039745331,
            0.042439352720975876,
            0.021153990179300308
          ]
        ],
        [
          [
            0.09349329769611359,
            0.06144392490386963,
            0.11496327072381973
          ],
          [
            -0.01572459749877453,
            0.05513998121023178,
            0.09889735281467438
          ],
          [
            0.12295520305633545,
            0.03341909125447273,
            0.0927879735827446
          ]
        ]
      ],
      [
        [
          [
            -0.331645667552948,
            -0.34451133012771606,
            -0.13353624939918518
          ],
          [
            -0.3232482075691223,
            -0.4303700625896454,
            -0.2835313081741333
          ],
          [
            -0.40317970514297485,
            -0.46938830614089966,
            -0.2848174273967743
          ]
        ],
        [
          [
            -0.032448552548885345,
            0.045810893177986145,
            -0.08045100420713425
          ],
          [
            -0.12391204386949539,
            0.010130107402801514,
            -0.04051614925265312
          ],
          [
            -0.001797501347027719,
            -0.11729476600885391,
            -0.03365391492843628
          ]
        ],
        [
          [
            0.10278746485710144,
            0.05710209533572197,
            0.15636351704597473
          ],
          [
            0.03299911692738533,
            -0.012032809667289257,
            0.11188459396362305
          ],
          [
            0.08504632115364075,
            0.09661321341991425,
            0.06626873463392258
          ]
        ],
        [
          [
            0.019924812018871307,
            -0.02036418206989765,
            -0.04785547032952309
          ],
          [
            -0.012432914227247238,
            0.026248864829540253,
            0.06797289848327637
          ],
          [
            0.07717598974704742,
            -0.05037206783890724,
            -0.04608984291553497
          ]
        ],
        [
          [
            0.18170195817947388,
            0.07143596559762955,
            0.2148692011833191
          ],
          [
            0.057799436151981354,
            0.10083525627851486,
            0.14445620775222778
          ],
          [
            0.05093016475439072,
            -0.05267786234617233,
            -0.0392073355615139
          ]
        ],
        [
          [
            0.14795944094657898,
            0.17756931483745575,
            0.14880014955997467
          ],
          [
            0.06064360588788986,
            0.12192855775356293,
            0.1390627920627594
          ],
          [
            0.0755821242928505,
            0.14968442916870117,
            0.013069797307252884
          ]
        ],
        [
          [
            0.10555602610111237,
            0.18303748965263367,
            0.19979362189769745
          ],
          [
            0.11955642700195312,
            0.06109144911170006,
            0.08650805801153183
          ],
          [
            0.14094266295433044,
            -0.018743615597486496,
            -0.014378782361745834
          ]
        ],
        [
          [
            0.10154858231544495,
            0.14971545338630676,
            0.11636412888765335
          ],
          [
            0.02736295759677887,
            -0.03388052061200142,
            -0.0038708215579390526
          ],
          [
            -0.0486331544816494,
            -0.0013720679562538862,
            0.026114605367183685
          ]
        ],
        [
          [
            0.19084829092025757,
            0.15042266249656677,
            0.2535603940486908
          ],
          [
            0.23635615408420563,
            0.2397598922252655,
            0.22728091478347778
          ],
          [
            0.29354140162467957,
            0.2171040177345276,
            0.40865376591682434
          ]
        ],
        [
          [
            0.020663702860474586,
            0.07844746857881546,
            0.0673445463180542
          ],
          [
            -0.028961362317204475,
            -0.01674153096973896,
            0.006267657969146967
          ],
          [
            0.11438441276550293,
            0.025702254846692085,
            0.07634420692920685
          ]
        ],
        [
          [
            0.15454648435115814,
            0.04280431568622589,
            0.03219858556985855
          ],
          [
            0.06783199310302734,
            0.13385556638240814,
            0.10726127028465271
          ],
          [
            0.19669076800346375,
            0.22767873108386993,
            0.24387650191783905
          ]
        ],
        [
          [
            0.029544465243816376,
            0.04839414358139038,
            0.08225610852241516
          ],
          [
            -0.03138398751616478,
            -0.04283168911933899,
            -0.056166425347328186
          ],
          [
            0.07412455230951309,
            0.018451347947120667,
            0.07257050275802612
          ]
        ],
        [
          [
            -0.01687590219080448,
            0.018615754321217537,
            -0.06705199927091599
          ],
          [
            -0.07620943337678909,
            -0.039923567324876785,
            -0.0958762913942337
          ],
          [
            -0.08577917516231537,
            -0.06576824188232422,
            -0.1150934249162674
          ]
        ],
        [
          [
            0.00924448948353529,
            -0.03841059282422066,
            0.017096512019634247
          ],
          [
            0.07094476372003555,
            -0.03504765406250954,
            0.03783151134848595
          ],
          [
            0.11157169938087463,
            -0.02466176263988018,
            0.09098776429891586
          ]
        ],
        [
          [
            -0.025250433012843132,
            0.07755554467439651,
            0.05465494841337204
          ],
          [
            -0.0026829394046217203,
            -0.03425312042236328,
            0.0007062413496896625
          ],
          [
            -0.06413285434246063,
            0.03283034265041351,
            0.024497486650943756
          ]
        ],
        [
          [
            0.02924833633005619,
            0.014213988557457924,
            -0.07430991530418396
          ],
          [
            0.049743663519620895,
            -0.06105271726846695,
            -0.07952485978603363
          ],
          [
            0.008686968125402927,
            -0.041635021567344666,
            0.0502130389213562
          ]
        ]
      ],
      [
        [
          [
            0.5472835898399353,
            0.6141651272773743,
            0.5986697673797607
          ],
          [
            0.4456586241722107,
            0.37118709087371826,
            0.3621176481246948
          ],
          [
            0.35538986325263977,
            0.38686704635620117,
            0.152069091796875
          ]
        ],
        [
          [
            0.03664311766624451,
            -0.0083406837657094,
            0.05328163504600525
          ],
          [
            -0.13862702250480652,
            0.07829994708299637,
            0.020779971033334732
          ],
          [
            -0.14028874039649963,
            -0.25593844056129456,
            -0.21879155933856964
          ]
        ],
        [
          [
            0.05559984967112541,
            0.08653274923563004,
            0.10100210458040237
          ],
          [
            -0.05430777743458748,
            -0.05320947989821434,
            0.023691227659583092
          ],
          [
            -0.3241141438484192,
            -0.2627250552177429,
            0.13663223385810852
          ]
        ],
        [
          [
            -0.3153708279132843,
            -0.07717029750347137,
            -0.14017938077449799
          ],
          [
            -0.8795499205589294,
            -0.20500580966472626,
            -0.12118738144636154
          ],
          [
            0.1783677488565445,
            -0.35415321588516235,
            -0.2997710108757019
          ]
        ],
        [
          [
            0.010995217598974705,
            0.02825990878045559,
            0.08577704429626465
          ],
          [
            0.028419891372323036,
            0.08375178277492523,
            0.1668478548526764
          ],
          [
            -0.29631465673446655,
            0.014509323053061962,
            0.07161062955856323
          ]
        ],
        [
          [
            0.06770512461662292,
            0.007146952208131552,
            0.04861362278461456
          ],
          [
            -0.10491985082626343,
            0.10470874607563019,
            0.23256932199001312
          ],
          [
            -0.3740660548210144,
            -0.1827315241098404,
            -0.05101020634174347
          ]
        ],
        [
          [
            0.03411116451025009,
            0.11171921342611313,
            0.01369258388876915
          ],
          [
            0.02580476552248001,
            0.08722690492868423,
            0.21044912934303284
          ],
          [
            -0.1151646226644516,
            -0.273166686296463,
            -0.09786053001880646
          ]
        ],
        [
          [
            -0.013248719274997711,
            -0.018736453726887703,
            0.05193711072206497
          ],
          [
            -0.014037908054888248,
            0.12171415239572525,
            0.07759252935647964
          ],
          [
            -0.24450108408927917,
            0.060475658625364304,
            0.12798567116260529
          ]
        ],
        [
          [
            -0.17437782883644104,
            -0.14754636585712433,
            -0.05044691637158394
          ],
          [
            -0.09016119688749313,
            0.04319071024656296,
            -0.04997695982456207
          ],
          [
            -0.11117062717676163,
            -0.10730306059122086,
            -0.47345253825187683
          ]
        ],
        [
          [
            0.1806240826845169,
            0.06633619219064713,
            0.05303334444761276
          ],
          [
            0.14954037964344025,
            0.12680701911449432,
            0.1671706736087799
          ],
          [
            -0.09168434143066406,
            -0.05989459156990051,
            0.029918624088168144
          ]
        ],
        [
          [
            -0.05199367180466652,
            -0.31691497564315796,
            -0.3926345407962799
          ],
          [
            0.30320224165916443,
            0.29535818099975586,
            -0.23931261897087097
          ],
          [
            -0.04064110666513443,
            0.2916344702243805,
            0.34928327798843384
          ]
        ],
        [
